/*!
 * The following copyright notice may not be removed under any circumstances.
 * 
 * Copyright:
 * (C) 2010 dot colon.
 * 
 * Full name:
 * Vegur-Light
 * 
 * Designer:
 * arro
 */
 
Cufon.registerFont({"w":522,"face":{"font-family":"Vegur Regular","font-weight":400,"font-stretch":"normal","units-per-em":"1000","panose-1":"0 0 0 0 0 0 0 0 0 0","ascent":"770","descent":"-230","x-height":"10","bbox":"-51 -855 932 250","underline-thickness":"50","underline-position":"-50","unicode-range":"U+0020-U+201D"},"glyphs":{" ":{"w":226},"a":{"d":"246,-494v112,0,177,57,177,166r0,328r-81,0v-3,-24,2,-55,-5,-75v-26,52,-79,85,-143,85v-78,0,-151,-55,-151,-154v0,-132,152,-188,296,-161v3,-77,-26,-125,-105,-125v-41,0,-81,9,-130,28r-8,-64v52,-20,101,-28,150,-28xm219,-54v84,0,130,-83,120,-196v-20,-3,-42,-6,-67,-6v-98,0,-139,42,-139,106v0,59,35,96,86,96","w":494},"B":{"d":"359,-369v86,25,135,80,135,160v0,133,-104,214,-270,214v-42,0,-99,-3,-148,-11r0,-664v61,-9,116,-13,168,-13v149,0,232,58,232,157v0,87,-63,131,-117,157xm160,-382r87,0v76,0,137,-47,137,-121v0,-100,-113,-127,-224,-106r0,227xm241,-320r-81,0r0,252v121,21,242,-13,242,-127v0,-78,-54,-125,-161,-125","w":545},"b":{"d":"318,10v-71,0,-118,-30,-158,-85r-3,75r-81,0r0,-720r84,0r0,311r2,0v38,-53,91,-85,162,-85v133,0,212,97,212,243v0,153,-88,261,-218,261xm298,-430v-106,0,-138,98,-138,217v0,93,62,159,140,159v96,0,148,-74,148,-189v0,-111,-54,-187,-150,-187","w":577},"C":{"d":"38,-330v0,-224,161,-358,357,-358v75,0,140,13,178,32r-9,69v-48,-20,-108,-33,-165,-33v-150,0,-269,105,-269,283v0,182,101,279,256,279v55,0,122,-13,170,-34r9,69v-49,21,-119,33,-188,33v-194,0,-339,-121,-339,-340","w":602},"c":{"d":"129,-244v0,188,152,224,293,162r8,64v-180,73,-389,7,-389,-215v0,-170,113,-261,263,-261v53,0,101,14,131,29r-8,64v-36,-17,-80,-29,-130,-29v-95,0,-168,64,-168,186","w":464},"D":{"d":"76,-669v58,-10,122,-14,177,-14v248,0,396,107,396,323v0,246,-193,365,-398,365v-54,0,-126,-4,-175,-11r0,-663xm160,-609r0,542v225,27,397,-52,397,-283v0,-163,-104,-265,-295,-265v-37,0,-71,1,-102,6","w":687},"d":{"d":"259,-494v70,0,118,30,158,85r0,-311r84,0r0,720r-81,0v-3,-24,2,-55,-5,-75v-38,53,-92,85,-162,85v-133,0,-212,-97,-212,-243v0,-153,88,-261,218,-261xm279,-54v106,0,138,-98,138,-217v0,-93,-63,-159,-140,-159v-97,0,-148,75,-148,189v0,111,53,187,150,187","w":577},"E":{"d":"160,-68r286,0r0,68r-370,0r0,-678r361,0r0,68r-277,0r0,226r243,0r0,68r-243,0r0,248","w":491},"e":{"d":"462,-223r-337,0v2,110,65,169,162,169v42,0,95,-10,132,-28r8,64v-178,70,-386,13,-386,-215v0,-149,99,-261,234,-261v140,1,205,124,187,271xm268,-430v-80,0,-127,56,-139,141r253,0v0,-80,-40,-141,-114,-141","w":508},"F":{"d":"160,0r-84,0r0,-678r361,0r0,68r-277,0r0,236r243,0r0,68r-243,0r0,306","w":466},"f":{"d":"114,-484v-15,-185,102,-285,266,-232r-8,62v-19,-7,-39,-12,-70,-12v-81,0,-112,80,-104,182r124,0r0,64r-124,0r0,420r-84,0r0,-420r-79,0r0,-64r79,0","w":349},"G":{"d":"561,-587v-203,-86,-431,-2,-431,250v0,239,176,310,376,258r0,-197r-136,0r0,-68r220,0r0,314v-52,22,-153,35,-213,35v-200,0,-339,-119,-339,-335v0,-220,158,-358,354,-358v75,0,140,13,178,32","w":653},"g":{"d":"499,-484r0,409v0,199,-111,281,-262,281v-56,0,-111,-10,-156,-35r8,-66v158,85,349,31,324,-186v-38,53,-92,85,-162,85v-130,0,-210,-95,-210,-241v0,-153,89,-257,216,-257v70,0,118,30,158,85r3,-75r81,0xm275,-430v-93,0,-146,71,-146,185v0,111,53,185,148,185v104,0,138,-94,138,-211v0,-93,-63,-159,-140,-159","w":575},"H":{"d":"523,-678r84,0r0,678r-84,0r0,-315r-363,0r0,315r-84,0r0,-678r84,0r0,295r363,0r0,-295","w":683},"h":{"d":"160,-404r2,0v34,-50,86,-90,158,-90v103,0,157,61,157,179r0,315r-84,0r0,-289v0,-93,-19,-137,-97,-137v-75,0,-136,60,-136,160r0,266r-84,0r0,-720r84,0r0,316","w":548},"I":{"d":"160,0r-84,0r0,-678r84,0r0,678","w":236},"i":{"d":"76,0r0,-484r84,0r0,484r-84,0xm118,-555v-29,0,-52,-23,-52,-52v0,-29,23,-52,52,-52v29,0,52,23,52,52v0,29,-23,52,-52,52","w":236},"J":{"d":"317,-235v6,214,-136,276,-314,231r9,-68v127,37,221,7,221,-155r0,-451r84,0r0,443","w":388},"j":{"d":"130,-555v-29,0,-52,-23,-52,-52v0,-29,23,-52,52,-52v29,0,52,23,52,52v0,29,-23,52,-52,52xm88,-33r0,-451r84,0r0,445v0,159,-84,229,-215,245r-8,-66v92,-19,139,-54,139,-173","w":248},"K":{"d":"550,-678r-283,313r303,365r-115,0r-240,-306v-23,14,-35,39,-55,57r0,249r-84,0r0,-678r84,0r0,329r4,0r282,-329r104,0","w":552},"k":{"d":"474,-484r-199,202r222,282r-108,0r-170,-222v-24,15,-38,41,-59,60r0,162r-84,0r0,-720r84,0r0,465r3,0r202,-229r109,0","w":486},"L":{"d":"160,-64r309,0r0,64r-393,0r0,-678r84,0r0,614","w":487},"l":{"d":"160,0r-84,0r0,-720r84,0r0,720","w":236},"M":{"d":"730,-678r24,678r-84,0r-14,-392v-2,-60,-1,-119,2,-177r-3,0v-53,193,-141,369,-210,549r-81,0r-149,-372v-24,-60,-43,-117,-58,-174r-3,0v11,189,-8,378,-11,566r-78,0r24,-678r104,0r138,351v27,67,51,130,75,221r3,0v65,-215,143,-374,218,-572r103,0","w":819},"m":{"d":"666,-299v0,-83,-25,-127,-88,-127v-75,0,-123,69,-123,180r0,246r-84,0r0,-299v0,-83,-25,-127,-88,-127v-75,0,-123,71,-123,180r0,246r-84,0r0,-484r81,0v3,25,-2,58,5,80v34,-53,78,-90,147,-90v77,0,117,41,136,109r3,0v32,-65,87,-109,156,-109v96,0,146,61,146,169r0,325r-84,0r0,-299","w":821},"N":{"d":"615,-678r0,678r-97,0r-245,-380v-32,-48,-66,-104,-124,-205r-3,0v3,87,5,181,5,231r0,354r-78,0r0,-678r107,0r245,380v31,48,75,118,114,191r3,0v-3,-88,-5,-167,-5,-217r0,-354r78,0","w":688},"n":{"d":"157,-484v3,25,-2,58,5,80v34,-50,86,-90,158,-90v103,0,157,61,157,179r0,315r-84,0r0,-289v0,-93,-19,-137,-97,-137v-75,0,-136,60,-136,160r0,266r-84,0r0,-484r81,0","w":548},"O":{"d":"366,-688v180,0,328,131,328,349v0,218,-148,349,-328,349v-180,0,-328,-131,-328,-349v0,-218,148,-349,328,-349xm366,-620v-134,0,-236,100,-236,281v0,181,102,281,236,281v134,0,236,-100,236,-281v0,-181,-102,-281,-236,-281","w":732},"o":{"d":"274,-494v146,0,233,110,233,252v0,142,-87,252,-233,252v-146,0,-233,-110,-233,-252v0,-142,87,-252,233,-252xm274,-54v101,0,145,-87,145,-188v0,-101,-44,-188,-145,-188v-101,0,-145,87,-145,188v0,101,44,188,145,188","w":548},"P":{"d":"160,-610r0,276v122,15,230,-16,234,-140v3,-119,-110,-159,-234,-136xm76,0r0,-669v59,-9,117,-14,167,-14v150,0,243,73,243,196v0,169,-155,242,-326,221r0,266r-84,0","w":509,"k":{"q":31,"o":31,"J":62,"g":31,"e":31,"d":31,"c":31,"a":36}},"p":{"d":"318,10v-71,0,-118,-30,-158,-85r0,271r-84,0r0,-680r81,0v3,24,-2,55,5,75v38,-53,91,-85,162,-85v133,0,212,97,212,243v0,153,-88,261,-218,261xm298,-430v-106,0,-138,98,-138,217v0,93,62,159,140,159v96,0,148,-74,148,-189v0,-111,-54,-187,-150,-187","w":577},"Q":{"d":"694,-339v0,166,-88,281,-208,327r38,142r-82,20r-35,-143v-211,22,-369,-115,-369,-346v0,-218,148,-349,328,-349v180,0,328,131,328,349xm366,-620v-134,0,-236,100,-236,281v0,181,102,281,236,281v134,0,236,-100,236,-281v0,-181,-102,-281,-236,-281","w":732},"q":{"d":"259,-494v70,0,118,30,158,85r3,-75r81,0r0,680r-84,0r0,-271r-2,0v-38,53,-92,85,-162,85v-133,0,-212,-97,-212,-243v0,-153,88,-261,218,-261xm279,-54v106,0,138,-98,138,-217v0,-93,-63,-159,-140,-159v-97,0,-148,75,-148,189v0,111,53,187,150,187","w":577},"r":{"d":"299,-411v-17,1,-39,8,-52,14v-51,23,-87,69,-87,194r0,203r-84,0r0,-484r83,0v2,34,-3,75,3,105v25,-62,77,-112,139,-115","w":314,"k":{"y":-16,"v":-16,"t":-21}},"R":{"d":"160,-357v130,7,240,-15,240,-134v0,-113,-124,-138,-240,-117r0,251xm247,-293r-87,0r0,293r-84,0r0,-665v59,-11,120,-17,174,-17v152,0,242,60,242,174v0,92,-72,148,-135,173v62,25,83,65,99,143v13,61,35,147,51,192r-96,0v-15,-54,-34,-136,-44,-186v-12,-61,-41,-107,-120,-107","w":530},"S":{"d":"67,-507v0,-110,94,-181,217,-181v52,0,99,8,137,24r-9,68v-88,-40,-254,-36,-254,80v0,69,38,102,116,133v117,47,175,93,175,188v0,195,-230,241,-403,180r9,-69v125,45,303,43,303,-94v0,-66,-36,-98,-125,-134v-116,-47,-166,-99,-166,-195","w":495},"s":{"d":"181,-210v-69,-23,-120,-66,-120,-140v0,-84,59,-144,165,-144v49,0,83,9,108,22r-8,64v-57,-32,-180,-35,-179,44v0,41,21,68,81,89v83,30,124,69,124,135v0,144,-189,183,-312,124r8,-65v76,40,218,44,218,-44v0,-42,-27,-65,-85,-85","w":400},"T":{"d":"494,-678r0,68r-205,0r0,610r-84,0r0,-610r-203,0r0,-68r492,0","w":496,"k":{"A":84,"z":76,"y":58,"x":56,"w":73,"v":76,"u":78,"s":82,"r":78,"q":56,"o":56,"n":78,"m":78,"J":86,"g":56,"e":56,"d":56,"c":56,"a":51}},"t":{"d":"303,-484r0,64r-116,0r0,280v-7,84,59,100,122,76r9,61v-21,9,-48,13,-89,13v-78,0,-126,-41,-126,-129r0,-301r-77,0r0,-64r77,0r0,-107r84,0r0,107r116,0","w":349},"u":{"d":"391,0v-3,-25,2,-58,-5,-80v-34,50,-86,90,-158,90v-103,0,-157,-61,-157,-179r0,-315r84,0r0,289v0,93,19,137,97,137v75,0,136,-60,136,-160r0,-266r84,0r0,484r-81,0","w":548},"U":{"d":"544,-233v0,162,-105,243,-237,243v-132,0,-237,-81,-237,-224r0,-464r84,0r0,454v0,111,60,166,155,166v102,0,157,-56,157,-166r0,-454r78,0r0,445","w":611},"V":{"d":"482,-678r82,0r-236,678r-86,0r-236,-678r89,0r100,299v27,81,62,190,92,300r3,0v30,-110,65,-220,92,-300","w":565,"k":{"A":74,"z":36,"s":56,"q":46,"o":46,"J":56,"g":46,"e":46,"d":46,"c":46,"a":52}},"v":{"d":"393,-484r82,0r-191,484r-85,0r-190,-484r90,0r89,242v19,52,39,107,56,163r3,0v18,-56,37,-111,57,-163","w":481},"w":{"d":"659,-484r84,0r-166,484r-87,0r-70,-231v-17,-57,-25,-88,-41,-165r-3,0v-31,158,-70,255,-109,396r-87,0r-167,-484r91,0r74,229v18,59,34,114,47,174r3,0v27,-142,73,-270,111,-403r85,0r68,230v17,58,32,113,44,174r3,0v29,-143,79,-271,120,-404","w":753},"W":{"d":"801,-678r84,0r-204,678r-87,0r-88,-329v-14,-50,-42,-168,-58,-249r-3,0v-43,222,-93,379,-145,578r-86,0r-204,-678r90,0r94,328v23,80,47,170,64,261r3,0v38,-213,96,-391,146,-589r87,0r88,329v21,80,41,169,58,261r3,0v43,-213,104,-392,158,-590","w":890,"k":{"A":69,"z":31,"s":51,"q":41,"o":41,"J":51,"g":41,"e":41,"d":41,"c":41,"a":47}},"X":{"d":"498,-678r-197,329r211,349r-98,0r-160,-286r-2,0r-158,286r-90,0r207,-345r-201,-333r98,0r149,270r2,0r149,-270r90,0","w":510},"x":{"d":"447,-484r-169,232v57,88,123,167,183,252r-104,0r-126,-192r-3,0r-126,192r-96,0r179,-245v-54,-84,-117,-158,-173,-239r104,0r114,178r3,0r118,-178r96,0","w":470},"Y":{"d":"441,-678r90,0r-219,383r0,295r-84,0r0,-288r-222,-390r96,0r167,313r3,0","w":532,"k":{"A":92,"z":60,"u":62,"s":86,"q":78,"o":78,"n":62,"m":62,"J":82,"g":78,"d":78,"c":78,"a":86}},"y":{"d":"202,9r-193,-493r90,0r89,242v19,52,39,107,56,163r3,0v18,-56,37,-111,57,-163r89,-242r82,0r-195,494v-49,123,-121,175,-226,196r-8,-66v79,-16,134,-60,156,-131","w":481},"z":{"d":"371,-417r-249,350r0,3r263,0r0,64r-354,0r0,-67r249,-350r0,-3r-226,0r0,-64r317,0r0,67","w":419},"Z":{"d":"127,-64r388,0r0,64r-479,0r0,-72r370,-542r-341,0r0,-64r430,0r0,72","w":547},"0":{"d":"494,-327v0,192,-76,337,-233,337v-157,0,-233,-145,-233,-337v0,-192,76,-337,233,-337v157,0,233,145,233,337xm120,-327v0,165,44,269,141,269v97,0,141,-104,141,-269v0,-165,-44,-269,-141,-269v-97,0,-141,104,-141,269"},"1":{"d":"286,-658r42,0r0,658r-84,0r0,-563r-133,52r-9,-65"},"2":{"d":"461,-64r0,64r-420,0r0,-67r75,-83v195,-216,235,-262,235,-333v0,-75,-47,-117,-135,-117v-42,0,-89,14,-131,36r-9,-67v47,-24,105,-37,156,-37v136,0,211,70,211,170v0,96,-54,159,-232,359v-22,25,-46,47,-65,75r315,0"},"3":{"d":"459,-189v0,186,-243,240,-413,169r9,-67v116,47,312,47,312,-91v0,-81,-67,-120,-177,-125r0,-64v85,-6,160,-53,160,-133v0,-116,-163,-118,-258,-71r-9,-67v50,-20,106,-30,159,-30v119,0,200,62,200,154v0,91,-67,132,-142,164v89,21,159,74,159,161"},"4":{"d":"416,-224r90,0r0,64r-90,0r0,160r-84,0r0,-160r-308,0r0,-66r303,-432r89,0r0,434xm115,-224r217,0r0,-166v-2,-38,6,-101,4,-171v-30,51,-65,105,-91,144"},"5":{"d":"161,-384v28,-9,62,-21,95,-21v122,0,206,78,206,190v0,137,-107,225,-250,225v-59,0,-115,-13,-156,-33r9,-69v50,21,107,34,157,34v88,0,148,-57,148,-145v0,-122,-133,-167,-223,-108r-67,-3r10,-344r333,0r0,64r-255,0"},"6":{"d":"259,10v-129,0,-216,-111,-216,-283v0,-249,171,-390,345,-395r9,65v-146,16,-249,113,-263,271r2,0v19,-39,83,-79,148,-79v116,0,197,84,197,194v0,137,-100,227,-222,227xm257,-343v-71,0,-123,45,-123,118v0,101,59,167,132,167v72,0,123,-54,123,-145v0,-80,-51,-140,-132,-140"},"7":{"d":"473,-658r0,63r-270,595r-88,0r272,-594r-323,0r0,-64r409,0"},"8":{"d":"336,-349v94,43,139,95,139,169v0,116,-100,190,-215,190v-114,0,-214,-60,-214,-177v0,-88,69,-133,146,-174v-72,-38,-120,-86,-120,-160v0,-94,87,-167,197,-167v110,0,189,64,189,160v0,76,-54,119,-122,159xm162,-505v0,56,36,88,105,123v66,-25,101,-62,101,-116v0,-62,-40,-104,-100,-104v-63,0,-106,42,-106,97xm262,-56v71,0,123,-44,123,-117v0,-60,-35,-105,-125,-139v-84,32,-124,75,-124,134v0,74,52,122,126,122"},"9":{"d":"263,-668v129,0,216,111,216,283v0,249,-171,390,-345,395r-9,-65v146,-16,248,-113,263,-271r-2,0v-20,39,-83,79,-148,79v-116,0,-197,-83,-197,-194v0,-137,100,-227,222,-227xm265,-315v71,0,123,-45,123,-118v0,-101,-59,-167,-132,-167v-72,0,-123,54,-123,145v0,80,51,140,132,140"},":":{"d":"113,-104v31,0,57,26,57,57v0,32,-26,57,-57,57v-32,0,-57,-25,-57,-57v0,-31,25,-57,57,-57xm113,-494v31,0,57,26,57,57v0,32,-26,57,-57,57v-32,0,-57,-25,-57,-57v0,-31,25,-57,57,-57","w":226},";":{"d":"67,-61v9,-35,63,-26,105,-27v-25,75,-63,174,-92,240r-79,13v21,-66,53,-173,66,-226xm126,-494v31,0,57,26,57,57v0,32,-26,57,-57,57v-32,0,-57,-25,-57,-57v0,-31,25,-57,57,-57","w":239},"<":{"d":"109,-263r302,161r0,78r-370,-201r0,-78r370,-201r0,78r-302,160r0,3","w":474},"=":{"d":"571,-115r-492,0r0,-62r492,0r0,62xm571,-335r-492,0r0,-62r492,0r0,62","w":650},">":{"d":"365,-265r-302,-161r0,-78r370,201r0,78r-370,201r0,-78r302,-160r0,-3","w":474},"?":{"d":"217,-47v0,-31,-26,-57,-57,-57v-32,0,-57,26,-57,57v0,32,25,57,57,57v31,0,57,-25,57,-57xm360,-539v0,68,-39,116,-89,174v-67,77,-71,97,-69,183r-84,0v-2,-104,14,-145,82,-220v37,-41,68,-80,68,-128v0,-107,-146,-108,-223,-57r-9,-67v44,-23,93,-34,142,-34v113,0,182,63,182,149","w":406},"]":{"d":"38,-638r0,-62r180,0r0,787r-180,0r0,-62r116,0r0,-663r-116,0","w":310},"^":{"d":"315,-674r183,390r-76,0r-143,-318r-2,0r-145,318r-76,0r183,-390r76,0","w":554},"_":{"d":"528,111r-492,0r0,-62r492,0r0,62","w":564},"~":{"d":"309,-225v-103,-43,-117,-48,-137,-48v-31,0,-48,26,-49,75r-62,0v0,-97,45,-141,116,-141v33,0,60,10,158,52v103,43,117,48,137,48v31,0,48,-25,49,-74r62,0v0,97,-45,140,-116,140v-33,0,-60,-10,-158,-52","w":644},"}":{"d":"273,-276v-62,7,-77,21,-68,98r13,114v13,117,-54,160,-183,160r0,-62v76,0,123,-18,117,-75r-15,-129v-11,-85,17,-111,73,-138v-60,-23,-82,-53,-73,-136r15,-129v6,-57,-41,-75,-117,-75r0,-62v129,0,196,43,183,160r-13,114v-9,77,6,91,68,98r0,62","w":344},"|":{"d":"160,250r-68,0r0,-1000r68,0r0,1000","w":252},"{":{"d":"71,-276r0,-62v62,-7,77,-21,68,-98r-13,-114v-13,-117,54,-160,183,-160r0,62v-76,0,-123,18,-117,75r15,129v11,85,-17,111,-73,138v60,23,82,53,73,136r-15,129v-6,57,41,75,117,75r0,62v-129,0,-196,-43,-183,-160r13,-114v9,-77,-6,-91,-68,-98","w":344},"[":{"d":"272,-638r-112,0r0,663r112,0r0,62r-180,0r0,-787r180,0r0,62","w":310},"\\":{"d":"69,-700r313,737r-74,0r-313,-737r74,0","w":377},"!":{"d":"190,-47v0,32,-26,57,-57,57v-32,0,-57,-25,-57,-57v0,-31,25,-57,57,-57v31,0,57,26,57,57xm172,-182r-78,0r-6,-496r90,0","w":266},"@":{"d":"503,-590v175,0,295,134,295,275v0,153,-84,265,-200,265v-47,0,-73,-18,-97,-60v-75,111,-252,79,-252,-70v0,-159,92,-251,244,-251v38,0,86,9,113,23r-36,236v-11,53,16,76,51,76v60,0,117,-76,117,-199v0,-145,-102,-249,-258,-249v-185,0,-355,137,-355,347v0,174,121,285,261,285v74,0,141,-15,205,-53r6,46v-67,37,-138,53,-222,53v-174,0,-310,-129,-310,-314v0,-249,206,-410,438,-410xm512,-236r18,-131v-115,-30,-207,34,-205,177v0,57,33,91,69,91v59,0,105,-45,118,-137","w":883},"`":{"d":"33,-704v32,3,78,-9,90,15v19,38,62,106,85,140r-74,3v-25,-34,-68,-99,-101,-158","w":284},"\"":{"d":"118,-461r-60,0r-5,-223v-1,-30,54,-17,84,-20xm259,-461r-60,0r-5,-223v-1,-30,54,-17,84,-20","w":324},"#":{"d":"341,-258r93,0r0,46r-101,0r-29,177r-54,0r29,-177r-96,0r-29,177r-54,0r29,-177r-85,0r0,-46r92,0r23,-142r-93,0r0,-46r101,0r29,-177r54,0r-29,177r96,0r29,-177r54,0r-29,177r85,0r0,46r-92,0xm286,-258r23,-142r-95,0r-23,142r95,0","w":500},"$":{"d":"437,-210v0,94,-59,158,-151,175r0,99r-62,0r0,-94v-48,-2,-104,-16,-142,-34r10,-68v86,47,254,59,254,-64v0,-53,-21,-80,-107,-115v-100,-41,-141,-86,-141,-163v0,-75,55,-128,127,-144r0,-105r62,0r0,99v48,2,91,14,119,30r-9,65v-58,-33,-208,-51,-208,47v0,50,25,74,91,101v116,47,157,98,157,171"},"&":{"d":"643,0r-109,0v-19,-20,-33,-45,-54,-63v-118,115,-432,102,-434,-108v-2,-98,65,-150,165,-219v-40,-31,-88,-87,-88,-145v0,-94,77,-153,161,-153v94,0,156,60,156,142v0,68,-51,115,-122,167r169,196r2,0v22,-39,35,-88,37,-153r78,0v-4,86,-29,156,-68,213xm283,-621v-39,0,-68,30,-68,81v1,38,24,80,62,109v53,-34,74,-68,74,-109v0,-53,-26,-81,-68,-81xm138,-177v0,141,218,151,299,59r-184,-220v-84,46,-115,100,-115,161","w":675},"'":{"d":"118,-461r-60,0r-5,-223v-1,-30,54,-17,84,-20","w":183},"(":{"d":"155,-307v0,146,45,298,103,401r-62,0v-65,-102,-117,-233,-117,-401v0,-168,52,-299,117,-401r62,0v-58,103,-103,255,-103,401","w":304},")":{"d":"149,-307v0,-146,-45,-298,-103,-401r62,0v65,102,117,233,117,401v0,168,-52,299,-117,401r-62,0v58,-103,103,-255,103,-401","w":304},"*":{"d":"238,-452r-73,127r-63,-46r98,-111r-144,-30r24,-75r135,60r-15,-147r78,0v-3,48,-15,103,-13,147r133,-60r24,75v-47,12,-101,17,-144,32r98,109r-63,46r-73,-127r-2,0","w":478},"+":{"d":"330,-287r207,0r0,62r-207,0r0,225r-68,0r0,-225r-207,0r0,-62r207,0r0,-225r68,0r0,225","w":592},"-":{"d":"303,-287r0,62r-235,0r0,-62r235,0","w":371},"\/":{"d":"308,-700r74,0r-313,737r-74,0","w":377},".":{"d":"113,-104v31,0,57,26,57,57v0,32,-26,57,-57,57v-32,0,-57,-25,-57,-57v0,-31,25,-57,57,-57","w":226},",":{"d":"67,-61v9,-35,63,-26,105,-27v-25,75,-63,174,-92,240r-79,13v21,-66,53,-173,66,-226","w":228},"\u2018":{"d":"159,-478v-8,35,-63,26,-105,27v25,-75,63,-173,92,-240r79,-13v-21,66,-53,173,-66,226","w":273},"\u2019":{"d":"114,-677v9,-35,63,-26,105,-27v-25,75,-63,174,-92,240r-79,13v21,-66,53,-173,66,-226","w":273},"\u201c":{"d":"320,-478v-8,35,-63,26,-105,27v25,-75,63,-173,92,-240r79,-13v-21,66,-53,173,-66,226xm159,-478v-8,35,-63,26,-105,27v25,-75,63,-173,92,-240r79,-13v-21,66,-53,173,-66,226","w":434},"\u201d":{"d":"114,-677v9,-35,63,-26,105,-27v-25,75,-63,174,-92,240r-79,13v21,-66,53,-173,66,-226xm283,-677v9,-35,63,-26,105,-27v-25,75,-63,174,-92,240r-79,13v21,-66,53,-173,66,-226","w":442},"A":{"d":"492,0r-74,-223r-237,0r-75,223r-82,0r236,-678r85,0r236,678r-89,0xm200,-287r199,0r-4,-12v-27,-81,-64,-190,-94,-297r-3,0v-30,107,-67,217,-94,297","w":603,"k":{"y":26,"Y":92,"W":69,"w":37,"v":42,"V":74,"T":84}},"%":{"d":"626,-330v94,0,155,79,155,170v0,91,-61,170,-155,170v-94,0,-155,-79,-155,-170v0,-91,61,-170,155,-170xm626,-52v51,0,79,-43,79,-108v0,-65,-28,-108,-79,-108v-51,0,-79,43,-79,108v0,65,28,108,79,108xm216,-668v94,0,155,79,155,170v0,91,-61,170,-155,170v-94,0,-155,-79,-155,-170v0,-91,61,-170,155,-170xm216,-390v51,0,79,-43,79,-108v0,-65,-28,-108,-79,-108v-51,0,-79,43,-79,108v0,65,28,108,79,108xm619,-688r64,0r-460,708r-64,0","w":842},"\u00a5":{"d":"480,-658r-146,282r108,0r0,46r-137,0r0,67r137,0r0,46r-137,0r0,217r-84,0r0,-217r-137,0r0,-46r137,0r0,-67r-137,0r0,-46r106,0r-147,-282r94,0v49,109,77,150,126,286r3,0v50,-138,76,-175,126,-286r88,0"},"\u00cb":{"d":"160,-68r286,0r0,68r-370,0r0,-678r361,0r0,68r-277,0r0,226r243,0r0,68r-243,0r0,248xm360,-720v-26,0,-47,-21,-47,-47v0,-26,21,-47,47,-47v26,0,47,21,47,47v0,26,-21,47,-47,47xm186,-720v-26,0,-47,-21,-47,-47v0,-26,21,-47,47,-47v26,0,47,21,47,47v0,26,-21,47,-47,47","w":491},"\u00cf":{"d":"152,0r0,-678r-84,0r0,678r84,0xm197,-720v-26,0,-47,-21,-47,-47v0,-26,21,-47,47,-47v26,0,47,21,47,47v0,26,-21,47,-47,47xm23,-720v-26,0,-47,-21,-47,-47v0,-26,21,-47,47,-47v26,0,47,21,47,47v0,26,-21,47,-47,47","w":220},"\u00c4":{"d":"492,0r-74,-223r-237,0r-75,223r-82,0r236,-678r85,0r236,678r-89,0xm200,-287r199,0r-4,-12v-27,-81,-64,-190,-94,-297r-3,0v-30,107,-67,217,-94,297xm391,-720v-26,0,-47,-21,-47,-47v0,-26,21,-47,47,-47v26,0,47,21,47,47v0,26,-21,47,-47,47xm217,-720v-26,0,-47,-21,-47,-47v0,-26,21,-47,47,-47v26,0,47,21,47,47v0,26,-21,47,-47,47","w":603},"\u00dc":{"d":"544,-233v0,162,-105,243,-237,243v-132,0,-237,-81,-237,-224r0,-464r84,0r0,454v0,111,60,166,155,166v102,0,157,-56,157,-166r0,-454r78,0r0,445xm399,-720v-26,0,-47,-21,-47,-47v0,-26,21,-47,47,-47v26,0,47,21,47,47v0,26,-21,47,-47,47xm225,-720v-26,0,-47,-21,-47,-47v0,-26,21,-47,47,-47v26,0,47,21,47,47v0,26,-21,47,-47,47","w":611},"\u00d6":{"d":"366,-688v180,0,328,131,328,349v0,218,-148,349,-328,349v-180,0,-328,-131,-328,-349v0,-218,148,-349,328,-349xm366,-620v-134,0,-236,100,-236,281v0,181,102,281,236,281v134,0,236,-100,236,-281v0,-181,-102,-281,-236,-281xm453,-720v-26,0,-47,-21,-47,-47v0,-26,21,-47,47,-47v26,0,47,21,47,47v0,26,-21,47,-47,47xm279,-720v-26,0,-47,-21,-47,-47v0,-26,21,-47,47,-47v26,0,47,21,47,47v0,26,-21,47,-47,47","w":732},"\u00e4":{"d":"251,-494v112,0,177,57,177,166r0,328r-81,0v-3,-24,2,-55,-5,-75v-26,52,-79,85,-143,85v-78,0,-151,-55,-151,-154v0,-132,152,-188,296,-161v3,-77,-26,-125,-105,-125v-41,0,-81,9,-130,28r-8,-64v52,-20,101,-28,150,-28xm224,-54v84,0,130,-83,120,-196v-20,-3,-42,-6,-67,-6v-98,0,-139,42,-139,106v0,59,35,96,86,96xm343,-560v-26,0,-47,-21,-47,-47v0,-26,21,-47,47,-47v26,0,47,21,47,47v0,26,-21,47,-47,47xm169,-560v-26,0,-47,-21,-47,-47v0,-26,21,-47,47,-47v26,0,47,21,47,47v0,26,-21,47,-47,47","w":499},"\u00ef":{"d":"68,0r0,-484r84,0r0,484r-84,0xm197,-560v-26,0,-47,-21,-47,-47v0,-26,21,-47,47,-47v26,0,47,21,47,47v0,26,-21,47,-47,47xm23,-560v-26,0,-47,-21,-47,-47v0,-26,21,-47,47,-47v26,0,47,21,47,47v0,26,-21,47,-47,47","w":220},"\u00fc":{"d":"391,0v-3,-25,2,-58,-5,-80v-34,50,-86,90,-158,90v-103,0,-157,-61,-157,-179r0,-315r84,0r0,289v0,93,19,137,97,137v75,0,136,-60,136,-160r0,-266r84,0r0,484r-81,0xm364,-560v-26,0,-47,-21,-47,-47v0,-26,21,-47,47,-47v26,0,47,21,47,47v0,26,-21,47,-47,47xm190,-560v-26,0,-47,-21,-47,-47v0,-26,21,-47,47,-47v26,0,47,21,47,47v0,26,-21,47,-47,47","w":548},"\u00eb":{"d":"275,-494v140,1,205,124,187,271r-337,0v2,110,65,169,162,169v42,0,95,-10,132,-28r8,64v-178,70,-386,13,-386,-215v0,-149,99,-261,234,-261xm129,-289r253,0v0,-80,-40,-141,-114,-141v-80,0,-127,56,-139,141xm359,-560v-26,0,-47,-21,-47,-47v0,-26,21,-47,47,-47v26,0,47,21,47,47v0,26,-21,47,-47,47xm185,-560v-26,0,-47,-21,-47,-47v0,-26,21,-47,47,-47v26,0,47,21,47,47v0,26,-21,47,-47,47","w":508},"\u00ff":{"d":"202,9r-193,-493r90,0r89,242v19,52,39,107,56,163r3,0v18,-56,37,-111,57,-163r89,-242r82,0r-195,494v-49,123,-121,175,-226,196r-8,-66v79,-16,134,-60,156,-131xm338,-560v-26,0,-47,-21,-47,-47v0,-26,21,-47,47,-47v26,0,47,21,47,47v0,26,-21,47,-47,47xm164,-560v-26,0,-47,-21,-47,-47v0,-26,21,-47,47,-47v26,0,47,21,47,47v0,26,-21,47,-47,47","w":481},"\u0178":{"d":"441,-678r90,0r-219,383r0,295r-84,0r0,-288r-222,-390r96,0r167,313r3,0xm360,-720v-26,0,-47,-21,-47,-47v0,-26,21,-47,47,-47v26,0,47,21,47,47v0,26,-21,47,-47,47xm186,-720v-26,0,-47,-21,-47,-47v0,-26,21,-47,47,-47v26,0,47,21,47,47v0,26,-21,47,-47,47","w":532},"\u00f6":{"d":"274,-494v146,0,233,110,233,252v0,142,-87,252,-233,252v-146,0,-233,-110,-233,-252v0,-142,87,-252,233,-252xm274,-54v101,0,145,-87,145,-188v0,-101,-44,-188,-145,-188v-101,0,-145,87,-145,188v0,101,44,188,145,188xm360,-560v-26,0,-47,-21,-47,-47v0,-26,21,-47,47,-47v26,0,47,21,47,47v0,26,-21,47,-47,47xm186,-560v-26,0,-47,-21,-47,-47v0,-26,21,-47,47,-47v26,0,47,21,47,47v0,26,-21,47,-47,47","w":548},"\u00c6":{"d":"501,-68r241,0r0,68r-315,0r-32,-223r-221,0r-101,223r-85,0r316,-678r410,0r0,68r-297,0r34,226r247,0r0,68r-237,0xm339,-598r-139,311r185,0r-43,-311r-3,0","w":785},"\u00c5":{"d":"492,0r-74,-223r-237,0r-75,223r-82,0r236,-678r85,0r236,678r-89,0xm200,-287r199,0r-4,-12v-27,-81,-64,-190,-94,-297r-3,0v-30,107,-67,217,-94,297xm302,-855v44,0,80,32,80,76v0,44,-36,76,-80,76v-44,0,-80,-32,-80,-76v0,-44,36,-76,80,-76xm302,-741v20,0,37,-15,37,-38v0,-23,-17,-38,-37,-38v-20,0,-37,15,-37,38v0,23,17,38,37,38","w":603},"\u00e5":{"d":"246,-494v112,0,177,57,177,166r0,328r-81,0v-3,-24,2,-55,-5,-75v-26,52,-79,85,-143,85v-78,0,-151,-55,-151,-154v0,-132,152,-188,296,-161v3,-77,-26,-125,-105,-125v-41,0,-81,9,-130,28r-8,-64v52,-20,101,-28,150,-28xm219,-54v84,0,130,-83,120,-196v-20,-3,-42,-6,-67,-6v-98,0,-139,42,-139,106v0,59,35,96,86,96xm249,-685v44,0,80,32,80,76v0,44,-36,76,-80,76v-44,0,-80,-32,-80,-76v0,-44,36,-76,80,-76xm249,-571v20,0,37,-15,37,-38v0,-23,-17,-38,-37,-38v-20,0,-37,15,-37,38v0,23,17,38,37,38","w":494},"\u00e6":{"d":"404,-417r3,0v45,-54,98,-77,164,-77v137,0,200,125,182,271r-327,0v-5,163,158,203,284,141r8,64v-47,19,-82,28,-142,28v-106,1,-161,-44,-202,-104v-26,52,-81,104,-177,104v-78,0,-154,-55,-154,-154v0,-131,154,-188,299,-161v3,-77,-26,-125,-105,-125v-41,0,-81,9,-130,28r-8,-64v109,-44,260,-44,305,49xm222,-54v84,0,130,-83,120,-196v-20,-3,-42,-6,-67,-6v-98,0,-142,42,-142,106v0,59,38,96,89,96xm430,-289r243,0v0,-72,-35,-141,-109,-141v-73,0,-122,56,-134,141","w":796},"\u00d8":{"d":"604,-589v55,60,90,145,90,250v0,300,-301,438,-522,288r-64,80r-47,-37r66,-82v-55,-60,-89,-145,-89,-249v0,-299,299,-437,521,-289r63,-79r46,38xm130,-339v0,80,18,144,51,183r331,-415v-39,-31,-90,-49,-146,-49v-134,0,-236,100,-236,281xm221,-109v166,122,389,17,381,-230v-2,-70,-16,-143,-51,-185r-330,412r0,3","w":732},"\u00f8":{"d":"434,-433v47,45,73,113,73,191v0,142,-87,252,-233,252v-45,0,-85,-10,-118,-29r-39,60r-47,-32r42,-62v-46,-46,-71,-113,-71,-189v0,-142,87,-252,233,-252v44,0,82,10,115,27r38,-57r47,31xm274,-430v-148,0,-171,202,-119,313r3,0r192,-294v-17,-11,-46,-19,-76,-19xm274,-54v147,1,175,-193,117,-315r-3,0r-194,294v24,13,52,21,80,21","w":548},"\u2013":{"d":"432,-287r0,62r-364,0r0,-62r364,0","w":500},"\u2014":{"d":"932,-287r0,62r-864,0r0,-62r864,0","w":1000},"\u00a0":{"w":226}}});
